Language model created by QuickLM on Sun Nov  6 06:55:32 EST 2016
Copyright (c) 1996-2010 Carnegie Mellon University and Alexander I. Rudnicky

The model is in standard ARPA format, designed by Doug Paul while he was at MITRE.

The code that was used to produce this language model is available in Open Source.
Please visit http://www.speech.cs.cmu.edu/tools/ for more information

The (fixed) discount mass is 0.5. The backoffs are computed using the ratio method.
This model based on a corpus of 8 sentences and 14 words

\data\
ngram 1=14
ngram 2=20
ngram 3=15

\1-grams:
-0.8893 </s> -0.3010
-0.8893 <s> -0.2410
-1.7924 A -0.2940
-1.7924 BACK -0.2410
-1.7924 CODERBOT -0.2410
-1.7924 HI -0.2410
-1.7924 LEFT -0.2410
-1.1903 MOVE -0.2721
-1.7924 PICTURE -0.2410
-1.7924 RIGHT -0.2410
-1.7924 SAY -0.2940
-1.7924 STOP -0.2410
-1.7924 STRAIGHT -0.2410
-1.7924 TAKE -0.2940

\2-grams:
-1.2041 <s> CODERBOT 0.0000
-0.6021 <s> MOVE 0.0000
-1.2041 <s> SAY 0.0000
-1.2041 <s> STOP 0.0000
-1.2041 <s> TAKE 0.0000
-0.3010 A PICTURE 0.0000
-0.3010 BACK </s> -0.3010
-0.3010 CODERBOT </s> -0.3010
-0.3010 HI </s> -0.3010
-0.3010 LEFT </s> -0.3010
-0.9031 MOVE BACK 0.0000
-0.9031 MOVE LEFT 0.0000
-0.9031 MOVE RIGHT 0.0000
-0.9031 MOVE STRAIGHT 0.0000
-0.3010 PICTURE </s> -0.3010
-0.3010 RIGHT </s> -0.3010
-0.3010 SAY HI 0.0000
-0.3010 STOP </s> -0.3010
-0.3010 STRAIGHT </s> -0.3010
-0.3010 TAKE A 0.0000

\3-grams:
-0.3010 <s> CODERBOT </s>
-0.9031 <s> MOVE BACK
-0.9031 <s> MOVE LEFT
-0.9031 <s> MOVE RIGHT
-0.9031 <s> MOVE STRAIGHT
-0.3010 <s> SAY HI
-0.3010 <s> STOP </s>
-0.3010 <s> TAKE A
-0.3010 A PICTURE </s>
-0.3010 MOVE BACK </s>
-0.3010 MOVE LEFT </s>
-0.3010 MOVE RIGHT </s>
-0.3010 MOVE STRAIGHT </s>
-0.3010 SAY HI </s>
-0.3010 TAKE A PICTURE

\end\
