Language model created by QuickLM on Fri Jul 17 10:28:00 EDT 2015
Copyright (c) 1996-2010 Carnegie Mellon University and Alexander I. Rudnicky

The model is in standard ARPA format, designed by Doug Paul while he was at MITRE.

The code that was used to produce this language model is available in Open Source.
Please visit http://www.speech.cs.cmu.edu/tools/ for more information

The (fixed) discount mass is 0.5. The backoffs are computed using the ratio method.
This model based on a corpus of 9 sentences and 17 words

\data\
ngram 1=17
ngram 2=24
ngram 3=18

\1-grams:
-0.9031 </s> -0.3010
-0.9031 <s> -0.2430
-1.8573 A -0.2950
-1.8573 BACKWARD -0.2430
-1.8573 CODERBOT -0.2430
-1.8573 FORWARD -0.2430
-1.8573 LEFT -0.2430
-1.5563 MOVE -0.2888
-1.8573 OKAY -0.2950
-1.8573 PICTURE -0.2430
-1.8573 RECORD -0.2888
-1.8573 RIGHT -0.2430
-1.8573 SAY -0.2430
-1.8573 STOP -0.2888
-1.8573 TAKE -0.2950
-1.5563 TURN -0.2888
-1.5563 VIDEO -0.2430

\2-grams:
-0.9542 <s> MOVE 0.0000
-1.2553 <s> OKAY 0.0000
-1.2553 <s> RECORD 0.0000
-1.2553 <s> SAY 0.0000
-1.2553 <s> STOP 0.0000
-1.2553 <s> TAKE 0.0000
-0.9542 <s> TURN 0.0000
-0.3010 A PICTURE 0.0000
-0.3010 BACKWARD </s> -0.3010
-0.3010 CODERBOT </s> -0.3010
-0.3010 FORWARD </s> -0.3010
-0.3010 LEFT </s> -0.3010
-0.6021 MOVE BACKWARD 0.0000
-0.6021 MOVE FORWARD 0.0000
-0.3010 OKAY CODERBOT 0.0000
-0.3010 PICTURE </s> -0.3010
-0.3010 RECORD VIDEO 0.0000
-0.3010 RIGHT </s> -0.3010
-0.3010 SAY </s> -0.3010
-0.3010 STOP VIDEO 0.0000
-0.3010 TAKE A 0.0000
-0.6021 TURN LEFT 0.0000
-0.6021 TURN RIGHT 0.0000
-0.3010 VIDEO </s> -0.3010

\3-grams:
-0.6021 <s> MOVE BACKWARD
-0.6021 <s> MOVE FORWARD
-0.3010 <s> OKAY CODERBOT
-0.3010 <s> RECORD VIDEO
-0.3010 <s> SAY </s>
-0.3010 <s> STOP VIDEO
-0.3010 <s> TAKE A
-0.6021 <s> TURN LEFT
-0.6021 <s> TURN RIGHT
-0.3010 A PICTURE </s>
-0.3010 MOVE BACKWARD </s>
-0.3010 MOVE FORWARD </s>
-0.3010 OKAY CODERBOT </s>
-0.3010 RECORD VIDEO </s>
-0.3010 STOP VIDEO </s>
-0.3010 TAKE A PICTURE
-0.3010 TURN LEFT </s>
-0.3010 TURN RIGHT </s>

\end\
